digraph Tree {
node [shape=box] ;
0 [label="X[2] <= 2.45\nentropy = 1.585\nsamples = 148\nvalue = [48, 50, 50]"] ;
1 [label="entropy = 0.0\nsamples = 48\nvalue = [48, 0, 0]"] ;
0 -> 1 [labeldistance=2.5, labelangle=45, headlabel="True"] ;
2 [label="X[3] <= 1.75\nentropy = 1.0\nsamples = 100\nvalue = [0, 50, 50]"] ;
0 -> 2 [labeldistance=2.5, labelangle=-45, headlabel="False"] ;
3 [label="X[3] <= 1.35\nentropy = 0.445\nsamples = 54\nvalue = [0, 49, 5]"] ;
2 -> 3 ;
4 [label="entropy = 0.0\nsamples = 28\nvalue = [0, 28, 0]"] ;
3 -> 4 ;
5 [label="X[2] <= 4.95\nentropy = 0.706\nsamples = 26\nvalue = [0, 21, 5]"] ;
3 -> 5 ;
6 [label="entropy = 0.286\nsamples = 20\nvalue = [0, 19, 1]"] ;
5 -> 6 ;
7 [label="entropy = 0.918\nsamples = 6\nvalue = [0, 2, 4]"] ;
5 -> 7 ;
8 [label="X[0] <= 5.95\nentropy = 0.151\nsamples = 46\nvalue = [0, 1, 45]"] ;
2 -> 8 ;
9 [label="X[1] <= 3.1\nentropy = 0.544\nsamples = 8\nvalue = [0, 1, 7]"] ;
8 -> 9 ;
10 [label="entropy = 0.0\nsamples = 7\nvalue = [0, 0, 7]"] ;
9 -> 10 ;
11 [label="entropy = 0.0\nsamples = 1\nvalue = [0, 1, 0]"] ;
9 -> 11 ;
12 [label="entropy = 0.0\nsamples = 38\nvalue = [0, 0, 38]"] ;
8 -> 12 ;
}